digraph Tree {
node [shape=box] ;
0 [label="bytes_read <= 0.1613\ngini = 0.4269\nsamples = 8084\nvalue = [5587, 2497]"] ;
1 [label="executor_run_ime <= 0.9967\ngini = 0.2144\nsamples = 2186\nvalue = [267, 1919]"] ;
0 -> 1 [labeldistance=2.5, labelangle=45, headlabel="True"] ;
2 [label="net <= 1.7285\ngini = 0.106\nsamples = 1994\nvalue = [112, 1882]"] ;
1 -> 2 ;
3 [label="net <= 0.0051\ngini = 0.0799\nsamples = 1871\nvalue = [78, 1793]"] ;
2 -> 3 ;
4 [label="cpu <= 0.5075\ngini = 0.0358\nsamples = 1260\nvalue = [23, 1237]"] ;
3 -> 4 ;
5 [label="gini = 0.0\nsamples = 621\nvalue = [0, 621]"] ;
4 -> 5 ;
6 [label="cpu <= 0.57\ngini = 0.0694\nsamples = 639\nvalue = [23, 616]"] ;
4 -> 6 ;
7 [label="gini = 0.0\nsamples = 8\nvalue = [8, 0]"] ;
6 -> 7 ;
8 [label="serialize <= 0.101\ngini = 0.0464\nsamples = 631\nvalue = [15, 616]"] ;
6 -> 8 ;
9 [label="cpu <= 1.3275\ngini = 0.0435\nsamples = 630\nvalue = [14, 616]"] ;
8 -> 9 ;
10 [label="net <= 0.0016\ngini = 0.142\nsamples = 104\nvalue = [8, 96]"] ;
9 -> 10 ;
11 [label="executor_run_ime <= 0.8616\ngini = 0.0213\nsamples = 93\nvalue = [1, 92]"] ;
10 -> 11 ;
12 [label="gini = 0.0\nsamples = 87\nvalue = [0, 87]"] ;
11 -> 12 ;
13 [label="cpu <= 0.989\ngini = 0.2778\nsamples = 6\nvalue = [1, 5]"] ;
11 -> 13 ;
14 [label="gini = 0.0\nsamples = 5\nvalue = [0, 5]"] ;
13 -> 14 ;
15 [label="gini = 0.0\nsamples = 1\nvalue = [1, 0]"] ;
13 -> 15 ;
16 [label="shuffle_write_records <= 0.0083\ngini = 0.4628\nsamples = 11\nvalue = [7, 4]"] ;
10 -> 16 ;
17 [label="gini = 0.0\nsamples = 7\nvalue = [7, 0]"] ;
16 -> 17 ;
18 [label="gini = 0.0\nsamples = 4\nvalue = [0, 4]"] ;
16 -> 18 ;
19 [label="cpu <= 87.565\ngini = 0.0226\nsamples = 526\nvalue = [6, 520]"] ;
9 -> 19 ;
20 [label="executor_run_ime <= 0.2329\ngini = 0.012\nsamples = 495\nvalue = [3, 492]"] ;
19 -> 20 ;
21 [label="io <= 22.0\ngini = 0.0894\nsamples = 64\nvalue = [3, 61]"] ;
20 -> 21 ;
22 [label="gini = 0.0\nsamples = 61\nvalue = [0, 61]"] ;
21 -> 22 ;
23 [label="gini = 0.0\nsamples = 3\nvalue = [3, 0]"] ;
21 -> 23 ;
24 [label="gini = 0.0\nsamples = 431\nvalue = [0, 431]"] ;
20 -> 24 ;
25 [label="io <= 6.8\ngini = 0.1748\nsamples = 31\nvalue = [3, 28]"] ;
19 -> 25 ;
26 [label="gini = 0.0\nsamples = 3\nvalue = [3, 0]"] ;
25 -> 26 ;
27 [label="gini = 0.0\nsamples = 28\nvalue = [0, 28]"] ;
25 -> 27 ;
28 [label="gini = 0.0\nsamples = 1\nvalue = [1, 0]"] ;
8 -> 28 ;
29 [label="net <= 0.0116\ngini = 0.1638\nsamples = 611\nvalue = [55, 556]"] ;
3 -> 29 ;
30 [label="net <= 0.0103\ngini = 0.3976\nsamples = 190\nvalue = [52, 138]"] ;
29 -> 30 ;
31 [label="net <= 0.0052\ngini = 0.195\nsamples = 137\nvalue = [15, 122]"] ;
30 -> 31 ;
32 [label="gini = 0.0\nsamples = 8\nvalue = [8, 0]"] ;
31 -> 32 ;
33 [label="cpu <= 54.4187\ngini = 0.1026\nsamples = 129\nvalue = [7, 122]"] ;
31 -> 33 ;
34 [label="executor_run_ime <= 0.1548\ngini = 0.0484\nsamples = 121\nvalue = [3, 118]"] ;
33 -> 34 ;
35 [label="executor_run_ime <= 0.1364\ngini = 0.2907\nsamples = 17\nvalue = [3, 14]"] ;
34 -> 35 ;
36 [label="io <= 6.955\ngini = 0.1244\nsamples = 15\nvalue = [1, 14]"] ;
35 -> 36 ;
37 [label="gini = 0.0\nsamples = 10\nvalue = [0, 10]"] ;
36 -> 37 ;
38 [label="net <= 0.0061\ngini = 0.32\nsamples = 5\nvalue = [1, 4]"] ;
36 -> 38 ;
39 [label="gini = 0.0\nsamples = 1\nvalue = [1, 0]"] ;
38 -> 39 ;
40 [label="gini = 0.0\nsamples = 4\nvalue = [0, 4]"] ;
38 -> 40 ;
41 [label="gini = 0.0\nsamples = 2\nvalue = [2, 0]"] ;
35 -> 41 ;
42 [label="gini = 0.0\nsamples = 104\nvalue = [0, 104]"] ;
34 -> 42 ;
43 [label="io <= 11.98\ngini = 0.5\nsamples = 8\nvalue = [4, 4]"] ;
33 -> 43 ;
44 [label="gini = 0.0\nsamples = 4\nvalue = [0, 4]"] ;
43 -> 44 ;
45 [label="gini = 0.0\nsamples = 4\nvalue = [4, 0]"] ;
43 -> 45 ;
46 [label="io <= 26.6993\ngini = 0.4215\nsamples = 53\nvalue = [37, 16]"] ;
30 -> 46 ;
47 [label="deserialize <= 0.0033\ngini = 0.1761\nsamples = 41\nvalue = [37, 4]"] ;
46 -> 47 ;
48 [label="gini = 0.0\nsamples = 3\nvalue = [0, 3]"] ;
47 -> 48 ;
49 [label="io <= 3.8\ngini = 0.0512\nsamples = 38\nvalue = [37, 1]"] ;
47 -> 49 ;
50 [label="gini = 0.0\nsamples = 1\nvalue = [0, 1]"] ;
49 -> 50 ;
51 [label="gini = 0.0\nsamples = 37\nvalue = [37, 0]"] ;
49 -> 51 ;
52 [label="gini = 0.0\nsamples = 12\nvalue = [0, 12]"] ;
46 -> 52 ;
53 [label="locality <= 0.5\ngini = 0.0142\nsamples = 421\nvalue = [3, 418]"] ;
29 -> 53 ;
54 [label="net <= 0.0436\ngini = 0.32\nsamples = 10\nvalue = [2, 8]"] ;
53 -> 54 ;
55 [label="gini = 0.0\nsamples = 8\nvalue = [0, 8]"] ;
54 -> 55 ;
56 [label="gini = 0.0\nsamples = 2\nvalue = [2, 0]"] ;
54 -> 56 ;
57 [label="shuffle_write_records <= 0.0167\ngini = 0.0049\nsamples = 411\nvalue = [1, 410]"] ;
53 -> 57 ;
58 [label="gini = 0.0\nsamples = 406\nvalue = [0, 406]"] ;
57 -> 58 ;
59 [label="shuffle_read_bytes <= 1.5054\ngini = 0.32\nsamples = 5\nvalue = [1, 4]"] ;
57 -> 59 ;
60 [label="gini = 0.0\nsamples = 1\nvalue = [1, 0]"] ;
59 -> 60 ;
61 [label="gini = 0.0\nsamples = 4\nvalue = [0, 4]"] ;
59 -> 61 ;
62 [label="JVM_time <= 0.1142\ngini = 0.4\nsamples = 123\nvalue = [34, 89]"] ;
2 -> 62 ;
63 [label="io <= 9.3667\ngini = 0.043\nsamples = 91\nvalue = [2, 89]"] ;
62 -> 63 ;
64 [label="gini = 0.0\nsamples = 2\nvalue = [2, 0]"] ;
63 -> 64 ;
65 [label="gini = 0.0\nsamples = 89\nvalue = [0, 89]"] ;
63 -> 65 ;
66 [label="gini = 0.0\nsamples = 32\nvalue = [32, 0]"] ;
62 -> 66 ;
67 [label="net <= 0.6593\ngini = 0.3111\nsamples = 192\nvalue = [155, 37]"] ;
1 -> 67 ;
68 [label="shuffle_records <= 0.4913\ngini = 0.4837\nsamples = 61\nvalue = [25, 36]"] ;
67 -> 68 ;
69 [label="gini = 0.0\nsamples = 24\nvalue = [24, 0]"] ;
68 -> 69 ;
70 [label="executor_run_ime <= 0.9995\ngini = 0.0526\nsamples = 37\nvalue = [1, 36]"] ;
68 -> 70 ;
71 [label="gini = 0.0\nsamples = 36\nvalue = [0, 36]"] ;
70 -> 71 ;
72 [label="gini = 0.0\nsamples = 1\nvalue = [1, 0]"] ;
70 -> 72 ;
73 [label="io <= 43.3645\ngini = 0.0152\nsamples = 131\nvalue = [130, 1]"] ;
67 -> 73 ;
74 [label="deserialize <= 0.0001\ngini = 0.1327\nsamples = 14\nvalue = [13, 1]"] ;
73 -> 74 ;
75 [label="gini = 0.0\nsamples = 13\nvalue = [13, 0]"] ;
74 -> 75 ;
76 [label="gini = 0.0\nsamples = 1\nvalue = [0, 1]"] ;
74 -> 76 ;
77 [label="gini = 0.0\nsamples = 117\nvalue = [117, 0]"] ;
73 -> 77 ;
78 [label="JVM_time <= 0.0247\ngini = 0.1768\nsamples = 5898\nvalue = [5320, 578]"] ;
0 -> 78 [labeldistance=2.5, labelangle=-45, headlabel="False"] ;
79 [label="data_read_method <= 0.5\ngini = 0.481\nsamples = 979\nvalue = [585, 394]"] ;
78 -> 79 ;
80 [label="shuffle_read_bytes <= 2.9941\ngini = 0.0296\nsamples = 533\nvalue = [525, 8]"] ;
79 -> 80 ;
81 [label="shuffle_records <= 1.0009\ngini = 0.0038\nsamples = 523\nvalue = [522, 1]"] ;
80 -> 81 ;
82 [label="gini = 0.0\nsamples = 521\nvalue = [521, 0]"] ;
81 -> 82 ;
83 [label="executor_run_ime <= 0.9783\ngini = 0.5\nsamples = 2\nvalue = [1, 1]"] ;
81 -> 83 ;
84 [label="gini = 0.0\nsamples = 1\nvalue = [1, 0]"] ;
83 -> 84 ;
85 [label="gini = 0.0\nsamples = 1\nvalue = [0, 1]"] ;
83 -> 85 ;
86 [label="cpu <= 45.669\ngini = 0.42\nsamples = 10\nvalue = [3, 7]"] ;
80 -> 86 ;
87 [label="gini = 0.0\nsamples = 3\nvalue = [3, 0]"] ;
86 -> 87 ;
88 [label="gini = 0.0\nsamples = 7\nvalue = [0, 7]"] ;
86 -> 88 ;
89 [label="bytes_read <= 0.961\ngini = 0.2329\nsamples = 446\nvalue = [60, 386]"] ;
79 -> 89 ;
90 [label="gini = 0.0\nsamples = 40\nvalue = [40, 0]"] ;
89 -> 90 ;
91 [label="bytes_read <= 1.3802\ngini = 0.0937\nsamples = 406\nvalue = [20, 386]"] ;
89 -> 91 ;
92 [label="memory_bytes_spilled <= 9161864192.0\ngini = 0.0052\nsamples = 387\nvalue = [1, 386]"] ;
91 -> 92 ;
93 [label="gini = 0.0\nsamples = 386\nvalue = [0, 386]"] ;
92 -> 93 ;
94 [label="gini = 0.0\nsamples = 1\nvalue = [1, 0]"] ;
92 -> 94 ;
95 [label="gini = 0.0\nsamples = 19\nvalue = [19, 0]"] ;
91 -> 95 ;
96 [label="shuffle_read_bytes <= 2.9198\ngini = 0.072\nsamples = 4919\nvalue = [4735, 184]"] ;
78 -> 96 ;
97 [label="JVM_time <= 0.0678\ngini = 0.0229\nsamples = 4667\nvalue = [4613, 54]"] ;
96 -> 97 ;
98 [label="io <= 93.91\ngini = 0.1222\nsamples = 780\nvalue = [729, 51]"] ;
97 -> 98 ;
99 [label="bytes_read <= 1.2413\ngini = 0.051\nsamples = 687\nvalue = [669, 18]"] ;
98 -> 99 ;
100 [label="locality <= 0.5\ngini = 0.0267\nsamples = 666\nvalue = [657, 9]"] ;
99 -> 100 ;
101 [label="shuffle_write_bytes <= 0.0146\ngini = 0.4938\nsamples = 9\nvalue = [4, 5]"] ;
100 -> 101 ;
102 [label="net <= 4.2099\ngini = 0.32\nsamples = 5\nvalue = [4, 1]"] ;
101 -> 102 ;
103 [label="gini = 0.0\nsamples = 4\nvalue = [4, 0]"] ;
102 -> 103 ;
104 [label="gini = 0.0\nsamples = 1\nvalue = [0, 1]"] ;
102 -> 104 ;
105 [label="gini = 0.0\nsamples = 4\nvalue = [0, 4]"] ;
101 -> 105 ;
106 [label="JVM_time <= 0.0677\ngini = 0.0121\nsamples = 657\nvalue = [653, 4]"] ;
100 -> 106 ;
107 [label="net <= 0.1771\ngini = 0.0091\nsamples = 656\nvalue = [653, 3]"] ;
106 -> 107 ;
108 [label="gini = 0.0\nsamples = 612\nvalue = [612, 0]"] ;
107 -> 108 ;
109 [label="net <= 0.2237\ngini = 0.1271\nsamples = 44\nvalue = [41, 3]"] ;
107 -> 109 ;
110 [label="gini = 0.0\nsamples = 1\nvalue = [0, 1]"] ;
109 -> 110 ;
111 [label="cpu <= 78.955\ngini = 0.0887\nsamples = 43\nvalue = [41, 2]"] ;
109 -> 111 ;
112 [label="io <= 81.0792\ngini = 0.0465\nsamples = 42\nvalue = [41, 1]"] ;
111 -> 112 ;
113 [label="gini = 0.0\nsamples = 40\nvalue = [40, 0]"] ;
112 -> 113 ;
114 [label="shuffle_write_bytes <= 0.0079\ngini = 0.5\nsamples = 2\nvalue = [1, 1]"] ;
112 -> 114 ;
115 [label="gini = 0.0\nsamples = 1\nvalue = [0, 1]"] ;
114 -> 115 ;
116 [label="gini = 0.0\nsamples = 1\nvalue = [1, 0]"] ;
114 -> 116 ;
117 [label="gini = 0.0\nsamples = 1\nvalue = [0, 1]"] ;
111 -> 117 ;
118 [label="gini = 0.0\nsamples = 1\nvalue = [0, 1]"] ;
106 -> 118 ;
119 [label="shuffle_write_records <= 0.0062\ngini = 0.4898\nsamples = 21\nvalue = [12, 9]"] ;
99 -> 119 ;
120 [label="gini = 0.0\nsamples = 9\nvalue = [0, 9]"] ;
119 -> 120 ;
121 [label="gini = 0.0\nsamples = 12\nvalue = [12, 0]"] ;
119 -> 121 ;
122 [label="shuffle_write_bytes <= 0.0146\ngini = 0.4579\nsamples = 93\nvalue = [60, 33]"] ;
98 -> 122 ;
123 [label="JVM_time <= 0.0274\ngini = 0.0689\nsamples = 56\nvalue = [54, 2]"] ;
122 -> 123 ;
124 [label="cpu <= 27.7817\ngini = 0.4444\nsamples = 3\nvalue = [1, 2]"] ;
123 -> 124 ;
125 [label="gini = 0.0\nsamples = 1\nvalue = [1, 0]"] ;
124 -> 125 ;
126 [label="gini = 0.0\nsamples = 2\nvalue = [0, 2]"] ;
124 -> 126 ;
127 [label="gini = 0.0\nsamples = 53\nvalue = [53, 0]"] ;
123 -> 127 ;
128 [label="shuffle_records <= 0.5\ngini = 0.2717\nsamples = 37\nvalue = [6, 31]"] ;
122 -> 128 ;
129 [label="gini = 0.0\nsamples = 31\nvalue = [0, 31]"] ;
128 -> 129 ;
130 [label="gini = 0.0\nsamples = 6\nvalue = [6, 0]"] ;
128 -> 130 ;
131 [label="JVM_time <= 0.1055\ngini = 0.0015\nsamples = 3887\nvalue = [3884, 3]"] ;
97 -> 131 ;
132 [label="JVM_time <= 0.1055\ngini = 0.0154\nsamples = 386\nvalue = [383, 3]"] ;
131 -> 132 ;
133 [label="shuffle_write_bytes <= 0.0166\ngini = 0.0103\nsamples = 385\nvalue = [383, 2]"] ;
132 -> 133 ;
134 [label="gini = 0.0\nsamples = 357\nvalue = [357, 0]"] ;
133 -> 134 ;
135 [label="shuffle_write_records <= 0.0167\ngini = 0.1327\nsamples = 28\nvalue = [26, 2]"] ;
133 -> 135 ;
136 [label="gini = 0.0\nsamples = 2\nvalue = [0, 2]"] ;
135 -> 136 ;
137 [label="gini = 0.0\nsamples = 26\nvalue = [26, 0]"] ;
135 -> 137 ;
138 [label="gini = 0.0\nsamples = 1\nvalue = [0, 1]"] ;
132 -> 138 ;
139 [label="gini = 0.0\nsamples = 3501\nvalue = [3501, 0]"] ;
131 -> 139 ;
140 [label="cpu <= 35.8796\ngini = 0.4995\nsamples = 252\nvalue = [122, 130]"] ;
96 -> 140 ;
141 [label="deserialize <= 0.1526\ngini = 0.0615\nsamples = 126\nvalue = [122, 4]"] ;
140 -> 141 ;
142 [label="gini = 0.0\nsamples = 122\nvalue = [122, 0]"] ;
141 -> 142 ;
143 [label="gini = 0.0\nsamples = 4\nvalue = [0, 4]"] ;
141 -> 143 ;
144 [label="gini = 0.0\nsamples = 126\nvalue = [0, 126]"] ;
140 -> 144 ;
}